digraph Tree {
node [shape=box, style="filled, rounded", color="black", fontname=helvetica] ;
edge [fontname=helvetica] ;
0 [label=<TIPO_PACIENTE &le; 1.5<br/>entropy = 0.335<br/>samples = 879608<br/>value = [54401, 825207]<br/>class = Estado no vivo>, fillcolor="#46a3e7"] ;
1 [label=<NEUMONIA &le; 1.5<br/>entropy = 0.067<br/>samples = 705959<br/>value = [5593, 700366]<br/>class = Estado no vivo>, fillcolor="#3b9ee5"] ;
0 -> 1 [labeldistance=2.5, labelangle=45, headlabel="True"] ;
2 [label=<EDAD &le; 52.5<br/>entropy = 0.579<br/>samples = 20696<br/>value = [2855, 17841]<br/>class = Estado no vivo>, fillcolor="#59ade9"] ;
1 -> 2 ;
3 [label=<EDAD &le; 39.5<br/>entropy = 0.315<br/>samples = 13868<br/>value = [788, 13080]<br/>class = Estado no vivo>, fillcolor="#45a3e7"] ;
2 -> 3 ;
4 [label=<EDAD &le; 30.5<br/>entropy = 0.176<br/>samples = 8133<br/>value = [215, 7918]<br/>class = Estado no vivo>, fillcolor="#3ea0e6"] ;
3 -> 4 ;
5 [label=<entropy = 0.125<br/>samples = 4033<br/>value = [69, 3964]<br/>class = Estado no vivo>, fillcolor="#3c9fe5"] ;
4 -> 5 ;
6 [label=<entropy = 0.222<br/>samples = 4100<br/>value = [146, 3954]<br/>class = Estado no vivo>, fillcolor="#40a1e6"] ;
4 -> 6 ;
7 [label=<SEXO &le; 1.5<br/>entropy = 0.469<br/>samples = 5735<br/>value = [573, 5162]<br/>class = Estado no vivo>, fillcolor="#4fa8e8"] ;
3 -> 7 ;
8 [label=<entropy = 0.346<br/>samples = 2719<br/>value = [176, 2543]<br/>class = Estado no vivo>, fillcolor="#47a4e7"] ;
7 -> 8 ;
9 [label=<entropy = 0.562<br/>samples = 3016<br/>value = [397, 2619]<br/>class = Estado no vivo>, fillcolor="#57ace9"] ;
7 -> 9 ;
10 [label=<EDAD &le; 64.5<br/>entropy = 0.885<br/>samples = 6828<br/>value = [2067, 4761]<br/>class = Estado no vivo>, fillcolor="#8fc8f0"] ;
2 -> 10 ;
11 [label=<SEXO &le; 1.5<br/>entropy = 0.771<br/>samples = 3904<br/>value = [882, 3022]<br/>class = Estado no vivo>, fillcolor="#73baed"] ;
10 -> 11 ;
12 [label=<entropy = 0.674<br/>samples = 1702<br/>value = [302, 1400]<br/>class = Estado no vivo>, fillcolor="#64b2eb"] ;
11 -> 12 ;
13 [label=<entropy = 0.832<br/>samples = 2202<br/>value = [580, 1622]<br/>class = Estado no vivo>, fillcolor="#80c0ee"] ;
11 -> 13 ;
14 [label=<EDAD &le; 66.5<br/>entropy = 0.974<br/>samples = 2924<br/>value = [1185, 1739]<br/>class = Estado no vivo>, fillcolor="#c0e0f7"] ;
10 -> 14 ;
15 [label=<entropy = 0.914<br/>samples = 444<br/>value = [146, 298]<br/>class = Estado no vivo>, fillcolor="#9acdf2"] ;
14 -> 15 ;
16 [label=<entropy = 0.981<br/>samples = 2480<br/>value = [1039, 1441]<br/>class = Estado no vivo>, fillcolor="#c8e4f8"] ;
14 -> 16 ;
17 [label=<EDAD &le; 55.5<br/>entropy = 0.038<br/>samples = 685263<br/>value = [2738, 682525]<br/>class = Estado no vivo>, fillcolor="#3a9de5"] ;
1 -> 17 ;
18 [label=<EDAD &le; 43.5<br/>entropy = 0.018<br/>samples = 589686<br/>value = [983, 588703]<br/>class = Estado no vivo>, fillcolor="#399de5"] ;
17 -> 18 ;
19 [label=<SEXO &le; 1.5<br/>entropy = 0.009<br/>samples = 430200<br/>value = [347, 429853]<br/>class = Estado no vivo>, fillcolor="#399de5"] ;
18 -> 19 ;
20 [label=<entropy = 0.005<br/>samples = 225296<br/>value = [95, 225201]<br/>class = Estado no vivo>, fillcolor="#399de5"] ;
19 -> 20 ;
21 [label=<entropy = 0.014<br/>samples = 204904<br/>value = [252, 204652]<br/>class = Estado no vivo>, fillcolor="#399de5"] ;
19 -> 21 ;
22 [label=<SEXO &le; 1.5<br/>entropy = 0.038<br/>samples = 159486<br/>value = [636, 158850]<br/>class = Estado no vivo>, fillcolor="#3a9de5"] ;
18 -> 22 ;
23 [label=<entropy = 0.024<br/>samples = 85826<br/>value = [201, 85625]<br/>class = Estado no vivo>, fillcolor="#399de5"] ;
22 -> 23 ;
24 [label=<entropy = 0.052<br/>samples = 73660<br/>value = [435, 73225]<br/>class = Estado no vivo>, fillcolor="#3a9ee5"] ;
22 -> 24 ;
25 [label=<EDAD &le; 63.5<br/>entropy = 0.132<br/>samples = 95577<br/>value = [1755, 93822]<br/>class = Estado no vivo>, fillcolor="#3d9fe5"] ;
17 -> 25 ;
26 [label=<SEXO &le; 1.5<br/>entropy = 0.084<br/>samples = 54449<br/>value = [572, 53877]<br/>class = Estado no vivo>, fillcolor="#3b9ee5"] ;
25 -> 26 ;
27 [label=<entropy = 0.062<br/>samples = 27798<br/>value = [201, 27597]<br/>class = Estado no vivo>, fillcolor="#3a9ee5"] ;
26 -> 27 ;
28 [label=<entropy = 0.106<br/>samples = 26651<br/>value = [371, 26280]<br/>class = Estado no vivo>, fillcolor="#3c9ee5"] ;
26 -> 28 ;
29 [label=<EDAD &le; 70.5<br/>entropy = 0.188<br/>samples = 41128<br/>value = [1183, 39945]<br/>class = Estado no vivo>, fillcolor="#3fa0e6"] ;
25 -> 29 ;
30 [label=<entropy = 0.148<br/>samples = 21895<br/>value = [464, 21431]<br/>class = Estado no vivo>, fillcolor="#3d9fe6"] ;
29 -> 30 ;
31 [label=<entropy = 0.23<br/>samples = 19233<br/>value = [719, 18514]<br/>class = Estado no vivo>, fillcolor="#41a1e6"] ;
29 -> 31 ;
32 [label=<EDAD &le; 49.5<br/>entropy = 0.857<br/>samples = 173649<br/>value = [48808, 124841]<br/>class = Estado no vivo>, fillcolor="#86c3ef"] ;
0 -> 32 [labeldistance=2.5, labelangle=-45, headlabel="False"] ;
33 [label=<INTUBADO &le; 1.5<br/>entropy = 0.606<br/>samples = 65573<br/>value = [9727, 55846]<br/>class = Estado no vivo>, fillcolor="#5baeea"] ;
32 -> 33 ;
34 [label=<EDAD &le; 28.5<br/>entropy = 0.999<br/>samples = 4669<br/>value = [2273, 2396]<br/>class = Estado no vivo>, fillcolor="#f5fafe"] ;
33 -> 34 ;
35 [label=<EDAD &le; 16.5<br/>entropy = 0.837<br/>samples = 1327<br/>value = [354, 973]<br/>class = Estado no vivo>, fillcolor="#81c1ee"] ;
34 -> 35 ;
36 [label=<entropy = 0.73<br/>samples = 833<br/>value = [170, 663]<br/>class = Estado no vivo>, fillcolor="#6cb6ec"] ;
35 -> 36 ;
37 [label=<entropy = 0.953<br/>samples = 494<br/>value = [184, 310]<br/>class = Estado no vivo>, fillcolor="#afd7f4"] ;
35 -> 37 ;
38 [label=<NEUMONIA &le; 1.5<br/>entropy = 0.984<br/>samples = 3342<br/>value = [1919, 1423]<br/>class = Estado vivo>, fillcolor="#f8decc"] ;
34 -> 38 ;
39 [label=<entropy = 0.975<br/>samples = 3032<br/>value = [1800, 1232]<br/>class = Estado vivo>, fillcolor="#f7d7c1"] ;
38 -> 39 ;
40 [label=<entropy = 0.961<br/>samples = 310<br/>value = [119, 191]<br/>class = Estado no vivo>, fillcolor="#b4daf5"] ;
38 -> 40 ;
41 [label=<EDAD &le; 36.5<br/>entropy = 0.536<br/>samples = 60904<br/>value = [7454, 53450]<br/>class = Estado no vivo>, fillcolor="#55abe9"] ;
33 -> 41 ;
42 [label=<NEUMONIA &le; 1.5<br/>entropy = 0.375<br/>samples = 27906<br/>value = [2024, 25882]<br/>class = Estado no vivo>, fillcolor="#48a5e7"] ;
41 -> 42 ;
43 [label=<entropy = 0.501<br/>samples = 11766<br/>value = [1297, 10469]<br/>class = Estado no vivo>, fillcolor="#52a9e8"] ;
42 -> 43 ;
44 [label=<entropy = 0.265<br/>samples = 16140<br/>value = [727, 15413]<br/>class = Estado no vivo>, fillcolor="#42a2e6"] ;
42 -> 44 ;
45 [label=<NEUMONIA &le; 1.5<br/>entropy = 0.645<br/>samples = 32998<br/>value = [5430, 27568]<br/>class = Estado no vivo>, fillcolor="#60b0ea"] ;
41 -> 45 ;
46 [label=<entropy = 0.732<br/>samples = 18561<br/>value = [3803, 14758]<br/>class = Estado no vivo>, fillcolor="#6cb6ec"] ;
45 -> 46 ;
47 [label=<entropy = 0.508<br/>samples = 14437<br/>value = [1627, 12810]<br/>class = Estado no vivo>, fillcolor="#52a9e8"] ;
45 -> 47 ;
48 [label=<INTUBADO &le; 1.5<br/>entropy = 0.944<br/>samples = 108076<br/>value = [39081, 68995]<br/>class = Estado no vivo>, fillcolor="#a9d5f4"] ;
32 -> 48 ;
49 [label=<NEUMONIA &le; 1.5<br/>entropy = 0.892<br/>samples = 10156<br/>value = [7018, 3138]<br/>class = Estado vivo>, fillcolor="#f1b992"] ;
48 -> 49 ;
50 [label=<EDAD &le; 61.5<br/>entropy = 0.871<br/>samples = 9362<br/>value = [6633, 2729]<br/>class = Estado vivo>, fillcolor="#f0b58a"] ;
49 -> 50 ;
51 [label=<entropy = 0.903<br/>samples = 3855<br/>value = [2626, 1229]<br/>class = Estado vivo>, fillcolor="#f1bc96"] ;
50 -> 51 ;
52 [label=<entropy = 0.845<br/>samples = 5507<br/>value = [4007, 1500]<br/>class = Estado vivo>, fillcolor="#efb083"] ;
50 -> 52 ;
53 [label=<UCI &le; 1.5<br/>entropy = 0.999<br/>samples = 794<br/>value = [385, 409]<br/>class = Estado no vivo>, fillcolor="#f3f9fd"] ;
49 -> 53 ;
54 [label=<entropy = 0.92<br/>samples = 200<br/>value = [67, 133]<br/>class = Estado no vivo>, fillcolor="#9dcef2"] ;
53 -> 54 ;
55 [label=<entropy = 0.996<br/>samples = 594<br/>value = [318, 276]<br/>class = Estado vivo>, fillcolor="#fceee5"] ;
53 -> 55 ;
56 [label=<EDAD &le; 63.5<br/>entropy = 0.912<br/>samples = 97920<br/>value = [32063, 65857]<br/>class = Estado no vivo>, fillcolor="#99cdf2"] ;
48 -> 56 ;
57 [label=<NEUMONIA &le; 1.5<br/>entropy = 0.844<br/>samples = 47711<br/>value = [12961, 34750]<br/>class = Estado no vivo>, fillcolor="#83c2ef"] ;
56 -> 57 ;
58 [label=<entropy = 0.896<br/>samples = 29090<br/>value = [9096, 19994]<br/>class = Estado no vivo>, fillcolor="#93caf1"] ;
57 -> 58 ;
59 [label=<entropy = 0.737<br/>samples = 18621<br/>value = [3865, 14756]<br/>class = Estado no vivo>, fillcolor="#6db7ec"] ;
57 -> 59 ;
60 [label=<NEUMONIA &le; 1.5<br/>entropy = 0.958<br/>samples = 50209<br/>value = [19102, 31107]<br/>class = Estado no vivo>, fillcolor="#b3d9f5"] ;
56 -> 60 ;
61 [label=<entropy = 0.983<br/>samples = 30898<br/>value = [13114, 17784]<br/>class = Estado no vivo>, fillcolor="#cbe5f8"] ;
60 -> 61 ;
62 [label=<entropy = 0.893<br/>samples = 19311<br/>value = [5988, 13323]<br/>class = Estado no vivo>, fillcolor="#92c9f1"] ;
60 -> 62 ;
}
